{"layerType":"InputLayer","numberOfNeurons":10,"neurons":[{"neuronType":"Input","neuronStatus":"DeActivated","edgesIn":0,"edgesOut":26,"weights":[[]]},{"neuronType":"Input","neuronStatus":"DeActivated","edgesIn":0,"edgesOut":26,"weights":[[]]},{"neuronType":"Input","neuronStatus":"DeActivated","edgesIn":0,"edgesOut":26,"weights":[[]]},{"neuronType":"Input","neuronStatus":"DeActivated","edgesIn":0,"edgesOut":26,"weights":[[]]},{"neuronType":"Input","neuronStatus":"DeActivated","edgesIn":0,"edgesOut":26,"weights":[[]]},{"neuronType":"Input","neuronStatus":"DeActivated","edgesIn":0,"edgesOut":26,"weights":[[]]},{"neuronType":"Input","neuronStatus":"DeActivated","edgesIn":0,"edgesOut":26,"weights":[[]]},{"neuronType":"Input","neuronStatus":"DeActivated","edgesIn":0,"edgesOut":26,"weights":[[]]},{"neuronType":"Input","neuronStatus":"DeActivated","edgesIn":0,"edgesOut":26,"weights":[[]]},{"neuronType":"Input","neuronStatus":"DeActivated","edgesIn":0,"edgesOut":26,"weights":[[]]}],"bias":[0.0,0.0,0.0,0.0,0.0,0.0,0.0,0.0,0.0,0.0],"layerOutput":[[0.0],[0.0],[0.0],[0.0],[0.0],[0.0],[0.0],[0.0],[0.0],[0.0]],"activatedLayerOutput":[[0.0],[0.0],[0.0],[0.0],[0.0],[0.0],[0.0],[0.0],[0.0],[0.0]],"dZ_dA":[[0.0],[0.0],[0.0],[0.0],[0.0],[0.0],[0.0],[0.0],[0.0],[0.0]],"dataLength":1}
{"layerType":"HiddenLayer","numberOfNeurons":27,"neurons":[{"neuronType":"Hidden","neuronStatus":"DeActivated","edgesIn":10,"edgesOut":26,"weights":[[-0.23277453598091913],[0.20640537745118642],[-0.3413656514867722],[0.29592789891666854],[-0.02257459826455116],[0.35579251984060184],[-0.1173745472666533],[0.39747957890387603],[-0.2310301732735915],[0.2777213181942276]]},{"neuronType":"Hidden","neuronStatus":"DeActivated","edgesIn":10,"edgesOut":26,"weights":[[-0.3140960246730704],[0.31359126685231403],[-0.07770744312927574],[-0.34625536849143873],[0.3288421083920821],[-0.363300270866423],[-0.28010809391886793],[0.0202024180441025],[0.28512262385127535],[-0.11463691325433123]]},{"neuronType":"Hidden","neuronStatus":"DeActivated","edgesIn":10,"edgesOut":26,"weights":[[-0.20970490992745655],[-0.35749455980166583],[0.21840681858468097],[0.35702810279986724],[0.26820516419413315],[-0.18197274168894326],[-0.24888540202836296],[-0.2539815710779083],[-0.1011432195265411],[-0.14057468143978719]]},{"neuronType":"Hidden","neuronStatus":"DeActivated","edgesIn":10,"edgesOut":26,"weights":[[0.08917289397832984],[-0.09272654009465109],[0.10004404861549593],[-0.21708771754847186],[-0.0023369303842541433],[0.28211772370077265],[0.4012835611272791],[-0.13160326405963912],[0.2648235564373243],[0.2671668662364978]]},{"neuronType":"Hidden","neuronStatus":"DeActivated","edgesIn":10,"edgesOut":26,"weights":[[0.38409141617612647],[-0.27378639225355517],[0.012208115735279301],[0.3558395077767716],[0.3927848836696815],[0.256657936750832],[0.3670197052782042],[-0.3610442961201878],[-0.03471249642298008],[-0.240471269903]]},{"neuronType":"Hidden","neuronStatus":"DeActivated","edgesIn":10,"edgesOut":26,"weights":[[0.07712858535525918],[0.384004138097304],[-0.35262992493424844],[0.40627439218656497],[-0.18113799340420214],[0.20421458453984492],[-0.33431678824560773],[0.08238309028900176],[0.32898685347902096],[-0.09553386810508213]]},{"neuronType":"Hidden","neuronStatus":"DeActivated","edgesIn":10,"edgesOut":26,"weights":[[-0.09876123101073708],[0.23254245237478394],[0.059672456088728065],[0.25137265384551016],[-0.08137879365818279],[-0.23577105255301944],[0.39846259387148225],[-0.3501754414149996],[0.2909116700796473],[0.18472788506051846]]},{"neuronType":"Hidden","neuronStatus":"DeActivated","edgesIn":10,"edgesOut":26,"weights":[[0.22913669881360527],[-0.23489151316623053],[0.13674951094498028],[0.17391124301166566],[0.2449414641009215],[-0.002210062430750115],[-0.1627674201684316],[-0.39934298360105075],[0.3166000946001845],[0.22929204235090456]]},{"neuronType":"Hidden","neuronStatus":"DeActivated","edgesIn":10,"edgesOut":26,"weights":[[0.26279469070001277],[-0.377474590320206],[-0.31661950811786477],[-0.4007358693126961],[-0.26057889005622736],[-0.295731852990756],[0.1824030660346872],[0.0041908627648372665],[0.2778239855071058],[0.14907596775152904]]},{"neuronType":"Hidden","neuronStatus":"DeActivated","edgesIn":10,"edgesOut":26,"weights":[[-0.18531448755516106],[0.21085471555558394],[-0.03636362175545699],[0.2014553236276055],[-0.019644865114260446],[0.1607685080829369],[0.1899265202369031],[0.04611305136064009],[-0.19285261068770787],[0.0346874349501487]]},{"neuronType":"Hidden","neuronStatus":"DeActivated","edgesIn":10,"edgesOut":26,"weights":[[-0.10488204871750034],[-0.3910708044908276],[-0.19200798834167854],[-0.3445655692490093],[0.3314850151739755],[0.10779032420614904],[0.12470494210316924],[-0.26256784806386557],[-0.29331213955945157],[-0.33484135135014614]]},{"neuronType":"Hidden","neuronStatus":"DeActivated","edgesIn":10,"edgesOut":26,"weights":[[-0.012422252439294013],[-0.35130053624347624],[-0.22735426084377092],[0.3626134961831157],[0.03705682342508548],[6.706808778281781E-4],[-0.029635660116596352],[-0.04702211711675747],[0.004096932407260223],[-0.1037539275338617]]},{"neuronType":"Hidden","neuronStatus":"DeActivated","edgesIn":10,"edgesOut":26,"weights":[[-0.20876495735570347],[0.39769856872400594],[-0.1461035195160001],[0.002721994376043535],[-0.004678876330497239],[-0.1353088990578371],[0.31166603445020896],[-0.19532331474816358],[0.2622223322154737],[0.2691871669041725]]},{"neuronType":"Hidden","neuronStatus":"DeActivated","edgesIn":10,"edgesOut":26,"weights":[[0.3178451932194713],[-0.3095235172125562],[0.38105507211944606],[0.08869061478350082],[-0.17116454881219267],[0.08072491101158463],[-0.03699636573503601],[0.02184787327740384],[-0.022392308946756367],[0.1973122752980923]]},{"neuronType":"Hidden","neuronStatus":"DeActivated","edgesIn":10,"edgesOut":26,"weights":[[0.35304229143650695],[0.3224065592001682],[0.07070905527439103],[0.3644770640112816],[0.4063190372635171],[-0.29134440285539764],[-0.3995531842556513],[0.32627714061699703],[-0.17993878555190224],[0.38876575130545094]]},{"neuronType":"Hidden","neuronStatus":"DeActivated","edgesIn":10,"edgesOut":26,"weights":[[-0.027485535073922984],[0.12144258235156452],[0.2947919921209347],[0.12128038595554741],[-0.31809456286974214],[0.23137156013274246],[-0.3854803171754044],[-0.05254905759160716],[-0.04322436868493518],[0.10896411413972845]]},{"neuronType":"Hidden","neuronStatus":"DeActivated","edgesIn":10,"edgesOut":26,"weights":[[-0.24584115962169523],[0.012255047962798749],[0.048503700063517896],[-0.2327433988050316],[-0.11321190232449768],[-0.09779878084068672],[-0.38848100794435697],[-0.0862221518978245],[0.12188593313181723],[0.3074959516827302]]},{"neuronType":"Hidden","neuronStatus":"DeActivated","edgesIn":10,"edgesOut":26,"weights":[[0.32940277014173985],[0.1540900923178557],[-0.1667863732026129],[-0.39567231772208644],[0.07107337467220076],[0.20947682996404543],[-0.3712645877767715],[0.11008397095251371],[-0.19083330403990154],[0.21365313679007075]]},{"neuronType":"Hidden","neuronStatus":"DeActivated","edgesIn":10,"edgesOut":26,"weights":[[0.16870841523507568],[-0.18307875335494436],[-0.2140575432980155],[-0.010267948366002033],[0.07400352738784238],[-0.3630240030900467],[0.3999627903325991],[-0.34852746459011164],[0.12267080789875967],[-0.3059880039502556]]},{"neuronType":"Hidden","neuronStatus":"DeActivated","edgesIn":10,"edgesOut":26,"weights":[[0.2417949346853026],[-0.35991203934969024],[0.01265761694089479],[0.3018400841634519],[-0.3561917199776892],[-0.05976922712138355],[-0.25898021834505724],[-0.1022532665972744],[0.013888220202414314],[-0.010213062879782409]]},{"neuronType":"Hidden","neuronStatus":"DeActivated","edgesIn":10,"edgesOut":26,"weights":[[0.12650539808428213],[-0.22569093791130115],[0.354698482362136],[0.21386838937099245],[0.38763191331301733],[0.3148709295432332],[-0.10759566797881659],[-0.18100913990623096],[-0.20154436656109567],[-0.2994593359424794]]},{"neuronType":"Hidden","neuronStatus":"DeActivated","edgesIn":10,"edgesOut":26,"weights":[[-0.050052034056652484],[-0.030045382421995614],[-0.11275371167516085],[-0.016102809500891546],[-0.33174233457606067],[0.15494570433051674],[0.2229292037770742],[0.25332381827543676],[-0.3415925483993226],[-0.17616367669759006]]},{"neuronType":"Hidden","neuronStatus":"DeActivated","edgesIn":10,"edgesOut":26,"weights":[[0.10936917973007859],[-0.38611232026689574],[-0.32824800734891413],[-0.25235505740745845],[-0.21668315379344852],[-0.05833783181436397],[-0.349243476458011],[-0.34383080178236297],[0.02628047175778586],[-0.012757277779821607]]},{"neuronType":"Hidden","neuronStatus":"DeActivated","edgesIn":10,"edgesOut":26,"weights":[[-0.22092843138860663],[-0.12827809911652954],[0.20791819245738014],[-0.33605578401013986],[0.06883512066001679],[0.04435403730221593],[0.05368652297044868],[0.1307174869402135],[0.18379948090510806],[-0.22735155121304435]]},{"neuronType":"Hidden","neuronStatus":"DeActivated","edgesIn":10,"edgesOut":26,"weights":[[0.118881675738367],[0.20632947352276093],[0.04142585783759006],[0.07197136857562003],[0.21800535362403511],[0.2234536185381531],[0.1729444385873134],[-0.10403268238895719],[0.36568935261060936],[0.362423344907511]]},{"neuronType":"Hidden","neuronStatus":"DeActivated","edgesIn":10,"edgesOut":26,"weights":[[0.08420940112585928],[-0.34771795631175556],[-0.010091643553071461],[0.2684611566382659],[0.2281725724152029],[0.03899094463285879],[0.18739273596094025],[-0.20363796894259],[-0.16159100043655583],[0.17316496736911696]]},{"neuronType":"Bias","neuronStatus":"DeActivated","edgesIn":10,"edgesOut":26,"weights":[[-0.2946784312214431],[-0.2926582397547258],[0.11479494492494463],[-0.3037898993406203],[0.18713211302179694],[-0.27602315490494267],[0.34655517319190915],[-0.12685763459706345],[-0.02541300695242754],[0.253167633910191]]}],"bias":[0.0,0.0,0.0,0.0,0.0,0.0,0.0,0.0,0.0,0.0,0.0,0.0,0.0,0.0,0.0,0.0,0.0,0.0,0.0,0.0,0.0,0.0,0.0,0.0,0.0,0.0,0.0],"layerOutput":[[0.0],[0.0],[0.0],[0.0],[0.0],[0.0],[0.0],[0.0],[0.0],[0.0],[0.0],[0.0],[0.0],[0.0],[0.0],[0.0],[0.0],[0.0],[0.0],[0.0],[0.0],[0.0],[0.0],[0.0],[0.0],[0.0],[0.0]],"activatedLayerOutput":[[0.0],[0.0],[0.0],[0.0],[0.0],[0.0],[0.0],[0.0],[0.0],[0.0],[0.0],[0.0],[0.0],[0.0],[0.0],[0.0],[0.0],[0.0],[0.0],[0.0],[0.0],[0.0],[0.0],[0.0],[0.0],[0.0],[0.0]],"dZ_dA":[[0.0],[0.0],[0.0],[0.0],[0.0],[0.0],[0.0],[0.0],[0.0],[0.0],[0.0],[0.0],[0.0],[0.0],[0.0],[0.0],[0.0],[0.0],[0.0],[0.0],[0.0],[0.0],[0.0],[0.0],[0.0],[0.0],[0.0]],"dataLength":1}
{"layerType":"HiddenLayer","numberOfNeurons":27,"neurons":[{"neuronType":"Hidden","neuronStatus":"DeActivated","edgesIn":27,"edgesOut":26,"weights":[[0.19321041156958096],[0.22349127015231107],[-0.3168344775208476],[0.15468359467098608],[0.30818857069603234],[0.130539110883111],[-0.010212248750947173],[-0.10405356873658109],[0.22389870834965842],[0.2661418887659678],[0.0890920880879682],[-0.0021767718973568773],[0.09186295503481057],[0.07471643944106482],[0.22493216054763265],[0.1258587415173852],[-0.33530791374055413],[-0.02897461490621467],[-0.207753105368145],[-0.13400904922305137],[0.0013079268183086579],[-0.07148513681335883],[-0.2655657418282247],[0.09591424822768502],[0.24708842989896995],[0.1884095698456708],[0.13854575002302388]]},{"neuronType":"Hidden","neuronStatus":"DeActivated","edgesIn":27,"edgesOut":26,"weights":[[-0.2838271562164304],[-0.2406572972641108],[0.2559123639426527],[0.2935535839200797],[-0.12846614165053533],[0.04515657972552162],[-0.13777499342379232],[-0.2278392619577988],[-0.09243632816123429],[0.0028913758368552256],[0.01638172632933982],[-0.2102306837080882],[0.17144816068970303],[0.05020608579135821],[0.1486648199041657],[-0.011197559454924955],[0.1025327210482822],[0.09060355651301649],[-0.002202048155717451],[-0.19916430544281297],[-0.18730504668320852],[-0.17843252106054028],[-0.04824690526200198],[0.05446872932507352],[-0.006285480535947352],[-0.025028310784407037],[0.10361483481963174]]},{"neuronType":"Hidden","neuronStatus":"DeActivated","edgesIn":27,"edgesOut":26,"weights":[[0.16649141668169187],[0.0637649178595206],[0.25070982880704185],[-0.05961517236735292],[-0.16065862293557284],[0.008774990318105524],[0.16485157258300343],[-0.31230187880295224],[-0.17579370484479848],[-0.03695659978638077],[0.23497880044162556],[0.03888816445814697],[0.18220033188639417],[-0.2767326803909702],[0.17718716934927747],[0.19427217602487645],[-0.2885136445825362],[0.08174363054720207],[0.3184942859929013],[-0.1760058765165183],[0.25608655212934883],[0.08545638157293334],[-0.2092189917983886],[-0.17200769910863825],[-0.0927431748625116],[-0.2716169750503213],[0.2740468146493412]]},{"neuronType":"Hidden","neuronStatus":"DeActivated","edgesIn":27,"edgesOut":26,"weights":[[0.23176099519867044],[-0.15711118474245464],[0.046332511477349125],[0.218907165564856],[-0.22579993149225763],[0.01880667716185136],[-0.0495290826025514],[-0.17219408800244776],[-0.16779488377021062],[-0.09083981973645291],[-0.19971360538687494],[0.12703943011503582],[-0.21750533479072887],[-0.2609560499805359],[0.0775553094371042],[0.024168238514517326],[-0.10408076913979467],[-0.06559012490295613],[0.13542627190220935],[-0.1397355846548096],[0.015130147033253882],[-0.3300513647123367],[-0.22437656310243168],[0.0011401103677949331],[0.23489773154774096],[0.20709186267795976],[-0.26623285323549833]]},{"neuronType":"Hidden","neuronStatus":"DeActivated","edgesIn":27,"edgesOut":26,"weights":[[-0.1365382000242022],[-0.16884619452048694],[-0.22142912026826364],[0.3180325829069982],[0.23487986565234187],[0.07519996241381355],[-0.33509953722972363],[-0.024854481853033128],[-0.11481899937477286],[-0.08004502591050633],[-0.16349639341339808],[0.21338999602503406],[0.1552050484632625],[-0.27330131976667493],[0.014893289276706856],[-0.2562762854753231],[-0.21698831094431906],[-0.12634670423697247],[0.12754808447785537],[-0.27921117567654297],[0.06947790685422844],[0.13086900963345915],[-0.00243075420886274],[0.13117276294234237],[-0.12198163584491911],[-0.3301961915330114],[0.10169790812493917]]},{"neuronType":"Hidden","neuronStatus":"DeActivated","edgesIn":27,"edgesOut":26,"weights":[[-0.03193591462581441],[-0.21775601679580253],[-0.09722049084506798],[0.13194798571934852],[0.018393290981222277],[-0.10607268984991078],[0.20415618301482563],[0.20914198782939852],[0.30385409237344474],[0.31024681724455083],[-0.20318360823448672],[0.2839540415829883],[-0.12092033205697042],[0.10610196269595434],[-0.11341059477067786],[0.21923017485409102],[-0.12210844122859343],[-0.1763165132410809],[0.3238028771747524],[0.09731074994367123],[-0.1386652912922844],[-0.033320537331501976],[0.12262144049842166],[-0.16278309897742688],[-0.07877071354190712],[-0.06837154273616436],[0.16066158383079215]]},{"neuronType":"Hidden","neuronStatus":"DeActivated","edgesIn":27,"edgesOut":26,"weights":[[-0.24195570355271237],[-0.2990565359231241],[0.02818225411093439],[-0.11958936098872167],[-0.18932295789415682],[0.26930883519838367],[-0.24408619584293256],[-0.03259567678247366],[0.01887376694431825],[-0.17696243951176419],[0.02387273704288323],[0.10926479518699844],[0.2536948718560411],[0.1063457720157559],[0.04853245601046274],[0.1579856193835854],[-0.09615949762790604],[0.16456163153140013],[0.193614777901423],[-0.13959984032101272],[0.05570422602632502],[-0.033634860639998376],[0.21495422343402626],[0.06992639763718361],[0.18018762805253152],[0.02426884453091488],[0.04897338535617457]]},{"neuronType":"Hidden","neuronStatus":"DeActivated","edgesIn":27,"edgesOut":26,"weights":[[-0.28832294272868647],[0.2509160011013851],[-0.01507328901693894],[-0.3226541136262436],[-0.32593471425988674],[-0.05533091023828851],[-0.09460268855776358],[-0.32829172147221947],[0.010194363590497635],[-0.0029129701121379803],[0.01418325936633441],[0.038459384054284174],[-0.31372832593780436],[0.15567575369370756],[0.1947622173961595],[-0.12636365302473446],[-0.26941755682561147],[0.23847229659924474],[0.03816998524459009],[0.3348242053403948],[-0.20187029913541676],[-0.14445540199330895],[-0.32280076177867545],[0.18314593755244268],[0.23797155283526794],[-0.25176212328353964],[-0.1985243183314905]]},{"neuronType":"Hidden","neuronStatus":"DeActivated","edgesIn":27,"edgesOut":26,"weights":[[-0.12214820493377748],[0.12387065880469728],[0.29190723120929185],[-0.1400360483843788],[-0.27628487281353264],[-0.18920539687678187],[0.26670807519683193],[-0.3351905778291267],[-0.18353987127438717],[0.119859868652899],[0.03883886973629613],[0.28119706483251994],[0.051607038773433145],[0.02563604777144146],[0.15241931776745987],[0.32341125292621853],[-0.06470912600951612],[0.3193794164884758],[0.004028053190799852],[-0.07419342718840838],[-0.05436120574394193],[-0.31539611361990694],[0.009195154970859265],[-0.14799888068728909],[-0.27489917784776197],[-0.08683146597068586],[-0.06140373856084386]]},{"neuronType":"Hidden","neuronStatus":"DeActivated","edgesIn":27,"edgesOut":26,"weights":[[-0.06296094340898922],[-0.10925647485866852],[-0.1955723102793448],[-0.009723998666024636],[-0.03956413153692656],[-0.3111681213374271],[0.06495928146019386],[0.3280458172621342],[-0.06474060242421775],[0.31142616371717646],[-0.1018039929043359],[-0.17164239461343478],[-0.07943876884646878],[-0.1471542197886058],[-0.23179655111744035],[0.08213730173282319],[0.11982423442320755],[-0.16548802910555183],[0.041668889454459124],[-0.3175685924992764],[-0.09695745345551693],[-0.3010637359344161],[0.08465861783510231],[-0.013266992634996477],[-0.307091074959518],[-0.10813365895936891],[-0.08849154957128835]]},{"neuronType":"Hidden","neuronStatus":"DeActivated","edgesIn":27,"edgesOut":26,"weights":[[-0.09078222509915801],[0.09158063249261372],[-0.18909654992726171],[-0.12127509941347536],[-0.13077286235758848],[0.15557267956725662],[0.21320792879040718],[0.33551838881745766],[0.130932740547625],[-0.25933287161242435],[-0.14049196962912414],[-0.25725559788265806],[-0.12507252235436694],[-0.16719520603621932],[0.1723879480022914],[0.2628176933271438],[0.24333110766976007],[0.20933448129445809],[0.3200758044971641],[-0.26110565319125373],[0.2110593222713334],[-0.1436172697259415],[-0.022990896646013947],[0.032831805786363244],[0.03161456829844422],[-0.2735087488776454],[0.19557317608431457]]},{"neuronType":"Hidden","neuronStatus":"DeActivated","edgesIn":27,"edgesOut":26,"weights":[[0.3362144726696341],[-0.10698692292774953],[-0.139487309477938],[-0.04656944105610944],[0.018407590853830147],[0.24398092475277144],[0.04795572152164723],[-0.1499240267448661],[-0.17754999187903117],[-0.014375054494611184],[0.1603021795452913],[0.2835222102274719],[0.15678050925137182],[-0.06366042562600432],[-0.3210494268500557],[0.17977849923100897],[0.2414705861376084],[0.22844336773668117],[0.15190044117459683],[0.32746000055110613],[0.30135966168206285],[-0.23715463131154504],[0.14390908044123607],[-0.17046593551899186],[0.21441530667910713],[0.0925920166490774],[0.1147086703498385]]},{"neuronType":"Hidden","neuronStatus":"DeActivated","edgesIn":27,"edgesOut":26,"weights":[[-0.09201644862102046],[-0.30372657855340757],[-0.26135063048082124],[0.11347277146189816],[0.21470244501355895],[0.14426796906119838],[-0.013762023308573512],[-0.05670760582180495],[0.19646574766223346],[0.30343693490194834],[0.10639691540990132],[0.1249782393796256],[-0.10290157615885798],[0.2839656379693256],[0.048110824198715985],[0.18473550026626062],[0.17577400109258778],[-0.19652403571180074],[-0.02691263129463456],[-0.06572004035640105],[-0.09663213632147097],[-0.21927809439529938],[0.06797982834797178],[0.164267645696343],[0.25979040060552105],[-0.03804541650748933],[-0.22979755360699128]]},{"neuronType":"Hidden","neuronStatus":"DeActivated","edgesIn":27,"edgesOut":26,"weights":[[-0.12059617020463295],[0.04459635228580222],[0.09059723175166612],[0.08471379670691104],[-0.1281617450453139],[0.267747706091244],[-0.20778848027929622],[0.057419710992549555],[0.32285992774505656],[0.09324963359270533],[0.1414312583055714],[-0.15031622131443292],[0.1481908838026419],[-0.2774534693571532],[0.03282114494569072],[0.07458012048960266],[0.14423168245512547],[-0.27261295549311887],[-0.05444601567080165],[0.07506631378710982],[0.17766615643166495],[0.13647412991586544],[-0.05134459126716179],[-0.1702129842096747],[-0.2984766197575255],[0.06805230570693932],[-0.21965702118235297]]},{"neuronType":"Hidden","neuronStatus":"DeActivated","edgesIn":27,"edgesOut":26,"weights":[[-0.10899072131999582],[-0.18552556688387184],[0.22576189236351407],[0.26459437925359053],[-0.2964999522125161],[0.2073643896321158],[-0.06123160971393893],[-0.27056984294795416],[-0.31446749555328646],[-0.09399695593285193],[-0.23241593366793106],[0.09971030706628747],[0.048700325046247106],[-0.011714064948717517],[0.1264298386741819],[-0.210951607452862],[0.06293794055709917],[-0.2827556799880716],[0.24985016912455105],[0.08702253910703239],[0.17022570797966208],[0.3240220544351887],[0.18483711895524735],[-0.14165296493972726],[0.13215041569001706],[-0.07472573807794464],[-0.22209093533809965]]},{"neuronType":"Hidden","neuronStatus":"DeActivated","edgesIn":27,"edgesOut":26,"weights":[[0.2447439301919616],[0.3222367929168485],[0.19672275737293043],[0.2907926495040185],[0.297300163328465],[0.038387398608896894],[0.21093424171783104],[0.10250931219836157],[-0.047655874067965676],[0.20123000856460926],[0.13521126118597354],[0.28701510006451114],[-0.2752351804555857],[-0.28843449270021365],[0.1386830078788815],[0.03309186929982649],[-0.06005310171655026],[0.273225582688541],[-0.012484242987569893],[-0.19421378948136608],[0.09769107480916062],[0.07657553039350251],[0.31051413308816767],[-0.09057901619981093],[-0.2777500378010769],[-0.08097208544045004],[0.13484529395276895]]},{"neuronType":"Hidden","neuronStatus":"DeActivated","edgesIn":27,"edgesOut":26,"weights":[[-0.3137202429151137],[-0.33107141839065096],[-0.17866197021442715],[0.329827107376073],[0.26200886785783595],[-0.07564924306575005],[-0.06977211105346004],[-0.2970565554052714],[0.05111020426764534],[-0.11043147387103949],[-0.294820315959645],[-0.021649027124961806],[0.14249041773561438],[-0.006999933593929808],[-0.15171540388103558],[-0.08285187211046635],[-0.23115207756441902],[-0.09651769213138178],[0.19824738561361788],[0.198291373576432],[0.22121758915257284],[0.219441058765513],[0.2889003812597596],[-0.2298207414676251],[-0.32066432711151827],[-0.011519195739293386],[0.013037678454720036]]},{"neuronType":"Hidden","neuronStatus":"DeActivated","edgesIn":27,"edgesOut":26,"weights":[[-0.2359773658597536],[0.22860000324851015],[0.11285462718620137],[-0.27833923580924025],[-0.13040718570324994],[0.3294064397149089],[0.23069645677139594],[0.20652075958791694],[0.05701282089471926],[0.0255269735180238],[-0.10904875683770687],[-0.30931808621010004],[0.07233867290257662],[-0.22090448828584916],[0.2927840074139302],[-0.020442103833952563],[0.04153640574829298],[0.014223629602005128],[0.21961057010918328],[0.0868024600769548],[0.15156864181714708],[0.2357996626293033],[0.31589691224986005],[-0.2986257729442727],[-0.12383408199355359],[0.03850691001972556],[-0.13210371091564208]]},{"neuronType":"Hidden","neuronStatus":"DeActivated","edgesIn":27,"edgesOut":26,"weights":[[-0.3007014473527191],[0.21406537602460973],[0.21883713095256074],[-0.31974419814497235],[-0.1767387114592539],[-0.11043785987316873],[0.2787094584551668],[0.08224734530201327],[0.2591887668990218],[-0.21314505289209068],[0.1020156331376022],[0.3189987615375751],[-0.2248859607473162],[-0.16348171175472473],[-0.10444880254725614],[-0.1995839236445275],[0.2659103860559675],[0.2996079772735889],[0.1309343049473654],[0.021827227216049017],[-0.1747412338228318],[0.09146992053766673],[0.16196207267678026],[-0.1563146142615354],[-0.2996383644766437],[-0.16859822954577186],[0.11052232001105805]]},{"neuronType":"Hidden","neuronStatus":"DeActivated","edgesIn":27,"edgesOut":26,"weights":[[-0.17495724441340613],[0.3249160195745866],[0.19233235367609858],[-0.14583486668039017],[-0.1837127519715172],[-0.30589933498370747],[-0.1682803532150606],[-0.09510215296837068],[-0.161205413293536],[0.027941466498913603],[0.22818599600251688],[-0.004312807577982969],[0.1293197167626346],[0.13126828696417786],[-0.30052101298503464],[-0.017070249462122267],[-0.013030649329605404],[-0.07630930295336735],[-0.22448768656452545],[-0.06541091890719586],[-0.20448968989257868],[0.2118884584216757],[0.07483132594390973],[0.05411470625366893],[0.27149916578340605],[0.0285247942802358],[-0.04610799791329229]]},{"neuronType":"Hidden","neuronStatus":"DeActivated","edgesIn":27,"edgesOut":26,"weights":[[-0.16514130930268703],[0.2972349960865224],[0.01857573762669673],[-0.26668794376234417],[0.06520632213558736],[-0.05738429492770292],[0.2689252759338939],[-0.16819506248408977],[-0.2281872920743534],[0.14539521669877342],[-0.2191348127485125],[-0.25461436616654154],[-0.05404708367374489],[0.16667996764102533],[-0.16196150261834918],[0.23114618790736252],[0.04974273924330286],[-0.274005569695744],[0.189265629906759],[-0.07586379894753859],[-0.029853190742660074],[-0.21028703912704752],[0.14170312000027113],[0.006289324094205184],[-0.25114296747871007],[-0.17354174747815687],[-0.2911040750235292]]},{"neuronType":"Hidden","neuronStatus":"DeActivated","edgesIn":27,"edgesOut":26,"weights":[[0.04336999532041225],[0.28167669973681575],[0.031661071467497914],[0.0836427971875352],[-0.08119183784919609],[-0.24833041227479444],[0.06514734635978786],[-0.07661884075767539],[-0.2682509881840695],[0.02951114607739297],[0.05217563363806493],[0.16799320630757253],[-0.14792794450004126],[0.131783031258761],[-0.3016290526227142],[-0.25302045497931724],[-0.08168756080858813],[-0.0018048135670663545],[0.0291300101441897],[-0.03637623742897739],[0.14225402630508976],[0.01034354776800761],[0.23828113996045197],[0.04954583373237742],[-0.15357109965742144],[0.13532006248501088],[0.1209490773976718]]},{"neuronType":"Hidden","neuronStatus":"DeActivated","edgesIn":27,"edgesOut":26,"weights":[[0.01954246909203533],[0.14933102154233902],[-0.1792366281185327],[0.10145495616775957],[0.23471265238261318],[0.06523565212459614],[0.12950400093142228],[-0.052207946050812415],[0.15259148899757413],[0.06849772382564112],[0.0684816896632664],[0.010634468257685659],[-0.00616309771650525],[0.1532333097333115],[-0.23499588542768843],[0.11739422025342205],[0.1315190428331494],[0.25885954520501353],[-0.11337198348213523],[-0.2629216348839775],[-0.15445521439873475],[0.14771559173396187],[-0.022168957592780647],[0.259734261239847],[-0.3188848455840187],[0.022491793648572678],[0.0751067247431001]]},{"neuronType":"Hidden","neuronStatus":"DeActivated","edgesIn":27,"edgesOut":26,"weights":[[0.0039890184032631],[-0.33226600517348687],[0.19326103802307837],[-0.13825343096793324],[0.2687082297000203],[0.23607760690264057],[0.2985834896989956],[0.2874202037404813],[0.14914312541273633],[0.014267400929998841],[-0.0983049135784676],[-0.08924577515140428],[0.06885194757804658],[0.20825763626640348],[0.28313418605700647],[-0.13697941596704094],[-0.3191164251018004],[0.289517820732234],[0.29249784421465086],[0.05482007289051066],[-0.2892350389376111],[-0.32599049660668505],[0.023559502883367223],[0.05361277143707083],[0.26293856054884013],[0.177669271994085],[-0.08151507488171283]]},{"neuronType":"Hidden","neuronStatus":"DeActivated","edgesIn":27,"edgesOut":26,"weights":[[0.168317815089837],[0.3087639055910679],[0.0715639578468289],[0.3311193024857557],[-0.24155139490363253],[0.2699916122543641],[-0.04933503908325415],[-0.11003248959127446],[-0.02477377085438731],[0.04387227844699054],[0.03821865007106062],[-0.040981450934374164],[-0.1228202217936378],[-0.21680577500535705],[-0.19151634011260063],[-0.1866911109280371],[-0.15548866028309097],[-0.04720787089226547],[-0.3321423348336632],[-0.006435845427372244],[0.22591361881904948],[-0.24425130465579564],[-0.08584043097672234],[-0.3054106559366449],[0.2584564556114708],[-0.10752932757046182],[0.0585283038705266]]},{"neuronType":"Hidden","neuronStatus":"DeActivated","edgesIn":27,"edgesOut":26,"weights":[[-0.1684325154331521],[0.2387267024403904],[0.08697849112121686],[0.28374390340430244],[-0.2648485610851905],[-0.22694929326959595],[0.172478903372832],[0.3175956072409807],[0.2894844889866838],[-0.23573085712166486],[-0.047652888870846954],[-0.23746589612969246],[-0.23058184240196303],[-0.1256665330860875],[-0.1453594650173351],[0.10302859401444214],[-0.17086502830004094],[0.14092432236448194],[0.11512786870253006],[0.07779708100640154],[-0.22021676623412034],[-0.14662308696455031],[-0.23207662311386001],[-0.09184422655544375],[-0.19708043312599732],[0.1948078568701328],[-0.09961032296516917]]},{"neuronType":"Bias","neuronStatus":"DeActivated","edgesIn":27,"edgesOut":26,"weights":[[-0.1441923349817006],[-0.10523855596301751],[-0.2192619512501633],[-0.3335075969981505],[-0.2675678938566117],[-0.12369342523051496],[0.177203359740282],[-0.1045380593184426],[0.3229866888558153],[0.1961077589595981],[-0.08849398459152485],[-0.13793316402277986],[0.08234046483527263],[0.1703517095038416],[-0.2377960871086522],[-0.21374988482150656],[0.09719351098204465],[0.23367775926611578],[-0.11864639607683103],[-0.28739014072890073],[0.1548316348380101],[-0.2645528325957996],[0.2817462313373619],[-0.2915637283500113],[-0.26298895992489796],[0.1576896962663321],[-0.331629488526078]]}],"bias":[0.0,0.0,0.0,0.0,0.0,0.0,0.0,0.0,0.0,0.0,0.0,0.0,0.0,0.0,0.0,0.0,0.0,0.0,0.0,0.0,0.0,0.0,0.0,0.0,0.0,0.0,0.0],"layerOutput":[[0.0],[0.0],[0.0],[0.0],[0.0],[0.0],[0.0],[0.0],[0.0],[0.0],[0.0],[0.0],[0.0],[0.0],[0.0],[0.0],[0.0],[0.0],[0.0],[0.0],[0.0],[0.0],[0.0],[0.0],[0.0],[0.0],[0.0]],"activatedLayerOutput":[[0.0],[0.0],[0.0],[0.0],[0.0],[0.0],[0.0],[0.0],[0.0],[0.0],[0.0],[0.0],[0.0],[0.0],[0.0],[0.0],[0.0],[0.0],[0.0],[0.0],[0.0],[0.0],[0.0],[0.0],[0.0],[0.0],[0.0]],"dZ_dA":[[0.0],[0.0],[0.0],[0.0],[0.0],[0.0],[0.0],[0.0],[0.0],[0.0],[0.0],[0.0],[0.0],[0.0],[0.0],[0.0],[0.0],[0.0],[0.0],[0.0],[0.0],[0.0],[0.0],[0.0],[0.0],[0.0],[0.0]],"dataLength":1}
{"layerType":"OutputLayer","numberOfNeurons":1,"neurons":[{"neuronType":"Output","neuronStatus":"DeActivated","edgesIn":27,"edgesOut":0,"weights":[[-0.12096937427694227],[-0.022357580819177214],[0.176511105422351],[-0.21599218439484363],[-0.4099211814679964],[0.24447354758873657],[0.36889460519046496],[0.07868956984315728],[-0.36121877801801816],[0.20349382565214763],[0.33200933758828527],[-0.1499460854893877],[-0.18243364470215911],[0.18084934085146337],[-0.4067556637769996],[-0.40765506361572856],[-0.4616686703932574],[-0.44192944618573654],[-0.30822439618884345],[-0.331486705603992],[-0.4084528615852354],[-0.3247644998785762],[-0.12012015750344984],[0.0898572324630163],[-0.3920435113031063],[-0.1557912624466895],[-0.07473090864080084]]}],"bias":[0.0],"layerOutput":[[0.0]],"activatedLayerOutput":[[0.0]],"dZ_dA":[[0.0]],"dataLength":1}
